digraph Tree {
node [shape=box, style="filled, rounded", color="black", fontname=helvetica] ;
edge [fontname=helvetica] ;
0 [label="sepal length (cm) <= 5.45\ngini = 0.66\nsamples = 94\nvalue = [41, 58, 51]\nclass = versicolor", fillcolor="#f1fdf6"] ;
1 [label="petal length (cm) <= 2.35\ngini = 0.28\nsamples = 28\nvalue = [35, 7, 0]\nclass = setosa", fillcolor="#ea9a61"] ;
0 -> 1 [labeldistance=2.5, labelangle=45, headlabel="True"] ;
2 [label="gini = 0.0\nsamples = 23\nvalue = [35, 0, 0]\nclass = setosa", fillcolor="#e58139"] ;
1 -> 2 ;
3 [label="gini = 0.0\nsamples = 5\nvalue = [0, 7, 0]\nclass = versicolor", fillcolor="#39e581"] ;
1 -> 3 ;
4 [label="petal length (cm) <= 4.85\ngini = 0.55\nsamples = 66\nvalue = [6, 51, 51]\nclass = versicolor", fillcolor="#ffffff"] ;
0 -> 4 [labeldistance=2.5, labelangle=-45, headlabel="False"] ;
5 [label="petal length (cm) <= 2.45\ngini = 0.26\nsamples = 34\nvalue = [6, 46, 2]\nclass = versicolor", fillcolor="#5ae996"] ;
4 -> 5 ;
6 [label="gini = 0.0\nsamples = 3\nvalue = [6, 0, 0]\nclass = setosa", fillcolor="#e58139"] ;
5 -> 6 ;
7 [label="petal length (cm) <= 4.75\ngini = 0.08\nsamples = 31\nvalue = [0, 46, 2]\nclass = versicolor", fillcolor="#42e686"] ;
5 -> 7 ;
8 [label="gini = 0.0\nsamples = 28\nvalue = [0, 43, 0]\nclass = versicolor", fillcolor="#39e581"] ;
7 -> 8 ;
9 [label="petal width (cm) <= 1.6\ngini = 0.48\nsamples = 3\nvalue = [0, 3, 2]\nclass = versicolor", fillcolor="#bdf6d5"] ;
7 -> 9 ;
10 [label="gini = 0.0\nsamples = 1\nvalue = [0, 2, 0]\nclass = versicolor", fillcolor="#39e581"] ;
9 -> 10 ;
11 [label="sepal length (cm) <= 6.05\ngini = 0.44\nsamples = 2\nvalue = [0, 1, 2]\nclass = virginica", fillcolor="#c09cf2"] ;
9 -> 11 ;
12 [label="gini = 0.0\nsamples = 1\nvalue = [0, 1, 0]\nclass = versicolor", fillcolor="#39e581"] ;
11 -> 12 ;
13 [label="gini = 0.0\nsamples = 1\nvalue = [0, 0, 2]\nclass = virginica", fillcolor="#8139e5"] ;
11 -> 13 ;
14 [label="petal length (cm) <= 5.15\ngini = 0.17\nsamples = 32\nvalue = [0, 5, 49]\nclass = virginica", fillcolor="#8e4de8"] ;
4 -> 14 ;
15 [label="sepal width (cm) <= 2.9\ngini = 0.44\nsamples = 10\nvalue = [0, 5, 10]\nclass = virginica", fillcolor="#c09cf2"] ;
14 -> 15 ;
16 [label="petal width (cm) <= 1.7\ngini = 0.35\nsamples = 5\nvalue = [0, 2, 7]\nclass = virginica", fillcolor="#a572ec"] ;
15 -> 16 ;
17 [label="gini = 0.0\nsamples = 1\nvalue = [0, 2, 0]\nclass = versicolor", fillcolor="#39e581"] ;
16 -> 17 ;
18 [label="gini = 0.0\nsamples = 4\nvalue = [0, 0, 7]\nclass = virginica", fillcolor="#8139e5"] ;
16 -> 18 ;
19 [label="petal width (cm) <= 1.75\ngini = 0.5\nsamples = 5\nvalue = [0, 3, 3]\nclass = versicolor", fillcolor="#ffffff"] ;
15 -> 19 ;
20 [label="gini = 0.0\nsamples = 2\nvalue = [0, 3, 0]\nclass = versicolor", fillcolor="#39e581"] ;
19 -> 20 ;
21 [label="gini = 0.0\nsamples = 3\nvalue = [0, 0, 3]\nclass = virginica", fillcolor="#8139e5"] ;
19 -> 21 ;
22 [label="gini = 0.0\nsamples = 22\nvalue = [0, 0, 39]\nclass = virginica", fillcolor="#8139e5"] ;
14 -> 22 ;
}